8.540981449186801910e-03 -1.815782859921455383e-02 -9.792689234018325806e-03 -1.051848987117409706e-03 -1.348175480961799622e-02 6.329792551696300507e-03 -1.016985345631837845e-02 -1.327940355986356735e-02 2.970984904095530510e-03 7.226025220006704330e-03 -1.200297754257917404e-02 7.158683612942695618e-03 4.696815740317106247e-03 1.965066790580749512e-01 1.628799177706241608e-02 -2.748163416981697083e-03 -6.783592980355024338e-03 -1.474824640899896622e-02 1.310784555971622467e-02 -2.245753537863492966e-03 1.857952401041984558e-02 -2.749623358249664307e-02 1.885041035711765289e-02 -1.236476935446262360e-02 1.341635943390429020e-03 3.460118314251303673e-04 -6.842924281954765320e-03 1.816166797652840614e-03 -2.087567001581192017e-02 -1.914972439408302307e-02 2.090531773865222931e-02 -7.575814612209796906e-03 1.952648721635341644e-02 6.116290576756000519e-03 -7.286983728408813477e-02 -2.985957264900207520e-01 -1.795197874307632446e-01 -2.129286080598831177e-01 8.968604356050491333e-02 1.664148420095443726e-01 2.432652264833450317e-01 2.531077861785888672e-01 1.013785377144813538e-01 2.283592969179153442e-01 2.052151858806610107e-01 8.868709206581115723e-02 5.178270488977432251e-02 1.063904166221618652e-01 1.559604257345199585e-01 1.002445220947265625e-01 9.254381060600280762e-02 3.013374470174312592e-02 2.626695111393928528e-02 -2.909457543864846230e-03 -3.120136447250843048e-02 1.765013672411441803e-02 2.786600403487682343e-02 1.128523703664541245e-02 -1.110016461461782455e-02 -8.471319451928138733e-03 2.293754741549491882e-02 -5.022996105253696442e-03 -1.327521204948425293e-01 -1.507721189409494400e-02 1.170123666524887085e-01 1.844198256731033325e-01 1.630873829126358032e-01 2.230175733566284180e-01 2.599436938762664795e-01 -2.754921093583106995e-02 2.191244997084140778e-02 -6.355439871549606323e-02 -1.819793730974197388e-01 -1.973937749862670898e-01 -3.149801492691040039e-02 2.954269759356975555e-03 1.499560475349426270e-01 6.923460960388183594e-02 1.637272685766220093e-01 2.315270006656646729e-01 1.626379787921905518e-01 1.104001328349113464e-01 -1.156948506832122803e-02 -6.595849059522151947e-03 2.715110604185611010e-04 1.318169943988323212e-02 5.827176198363304138e-02 9.200781583786010742e-03 -3.608062118291854858e-02 1.727972924709320068e-01 2.721211016178131104e-01 5.054519772529602051e-01 6.357613205909729004e-01 4.979262948036193848e-01 4.840693175792694092e-01 4.783508479595184326e-01 2.801398932933807373e-01 2.149113118648529053e-01 2.388521470129489899e-02 -1.974413692951202393e-01 -3.199972212314605713e-01 -1.324301958084106445e-01 1.351611167192459106e-01 2.012046575546264648e-01 1.849578619003295898e-01 1.059066969901323318e-02 7.807910442352294922e-02 1.700239032506942749e-01 1.456544995307922363e-01 1.411257535219192505e-01 -3.868095576763153076e-03 1.401442568749189377e-02 -1.445603370666503906e-02 -9.266693145036697388e-03 4.395691305398941040e-02 7.357077265623956919e-05 6.472130864858627319e-02 6.195163130760192871e-01 6.662839055061340332e-01 6.833969950675964355e-01 6.872615814208984375e-01 4.236493110656738281e-01 2.019486129283905029e-01 3.342344760894775391e-01 2.400931119918823242e-01 1.154795065522193909e-01 -1.189846992492675781e-01 -1.113718301057815552e-01 1.847096160054206848e-02 -5.007625371217727661e-02 -6.083862483501434326e-02 -1.741477549076080322e-01 -2.366884499788284302e-01 -2.263254225254058838e-01 -1.936334371566772461e-01 -9.022981673479080200e-02 -2.672499120235443115e-01 1.467684656381607056e-01 1.733082681894302368e-01 -2.144655399024486542e-02 1.480142306536436081e-02 -1.154774148017168045e-02 1.385397743433713913e-02 2.287440896034240723e-01 4.246092140674591064e-01 5.430700182914733887e-01 4.019750654697418213e-01 -2.645279839634895325e-02 -3.968263566493988037e-01 -6.542347073554992676e-01 -3.708755970001220703e-01 4.133894667029380798e-02 1.496387720108032227e-01 -1.417351067066192627e-01 -2.451778203248977661e-01 -1.351912766695022583e-01 1.604757830500602722e-02 9.156133234500885010e-02 3.875445574522018433e-02 -1.057080328464508057e-01 -1.280769705772399902e-01 -1.911774277687072754e-01 -2.331488393247127533e-02 -1.890663523226976395e-03 -5.154868960380554199e-02 -6.691305339336395264e-02 -2.460105810314416885e-03 1.402019243687391281e-02 -1.004889607429504395e-03 9.158985689282417297e-03 -2.002379894256591797e-01 2.398755103349685669e-01 1.260116100311279297e-01 1.753228530287742615e-02 -3.627718091011047363e-01 -1.004970908164978027e+00 -1.378569841384887695e+00 -1.072949171066284180e+00 -2.680906951427459717e-01 1.603299081325531006e-01 1.724636405706405640e-01 -3.890308737754821777e-02 -1.588262170553207397e-01 -4.029186069965362549e-02 2.739656567573547363e-01 2.943554222583770752e-01 1.757846772670745850e-01 1.887413412332534790e-01 2.027983814477920532e-01 1.496765911579132080e-01 1.254498958587646484e-01 1.449213176965713501e-01 1.252926439046859741e-01 6.941787898540496826e-02 -4.301644116640090942e-02 1.763241291046142578e-01 -1.290651690214872360e-02 -7.189445197582244873e-02 -2.605187892913818359e-01 -1.036775559186935425e-01 2.065862417221069336e-01 -5.164112448692321777e-01 -1.009521603584289551e+00 -1.387760043144226074e+00 -1.229144454002380371e+00 -8.699427843093872070e-01 -1.629307419061660767e-01 3.093049228191375732e-01 4.323820769786834717e-01 -8.773311972618103027e-02 -1.446761488914489746e-01 5.421263352036476135e-02 1.536819338798522949e-01 1.094582676887512207e-01 1.327499449253082275e-01 1.225605681538581848e-01 1.236589699983596802e-01 2.145641744136810303e-01 2.380924671888351440e-01 1.200044527649879456e-01 5.585707351565361023e-02 9.947422146797180176e-02 1.440369151532649994e-02 2.217193841934204102e-01 -5.731558799743652344e-02 -3.734765052795410156e-01 -3.403722047805786133e-01 -3.996886014938354492e-01 -1.276458948850631714e-01 -9.103246927261352539e-01 -1.180736303329467773e+00 -1.420203208923339844e+00 -1.530550718307495117e+00 -1.286437273025512695e+00 -2.082085013389587402e-01 7.357835769653320312e-01 4.142183065414428711e-01 -9.082867205142974854e-02 -9.840187430381774902e-02 9.916634112596511841e-02 5.878046900033950806e-02 -8.284661173820495605e-02 -1.146708801388740540e-01 7.706313580274581909e-02 5.391625687479972839e-02 8.240239322185516357e-02 -1.813187263906002045e-02 -2.711196243762969971e-01 -4.012396335601806641e-01 -3.927687406539916992e-01 -9.174261987209320068e-02 -6.426256895065307617e-02 3.956508263945579529e-02 -4.162785783410072327e-02 -5.521924495697021484e-01 -2.869503200054168701e-01 -4.457119405269622803e-01 -8.282451629638671875e-01 -1.010257720947265625e+00 -1.395367980003356934e+00 -2.270532369613647461e+00 -1.635510444641113281e+00 2.807548344135284424e-01 9.434613585472106934e-01 3.709515631198883057e-01 -1.699863076210021973e-01 -3.681398555636405945e-02 4.996868968009948730e-02 -1.052821055054664612e-01 -1.700864434242248535e-01 -1.600991189479827881e-01 -3.857133537530899048e-02 4.548114165663719177e-02 -2.211664430797100067e-02 -2.016019821166992188e-01 -5.292208790779113770e-01 -5.488994717597961426e-01 -5.184833407402038574e-01 6.718650460243225098e-03 1.388793736696243286e-01 -2.673879265785217285e-02 -2.780430912971496582e-01 -1.066379472613334656e-01 -3.109371662139892578e-01 -4.396657943725585938e-01 -8.743160963058471680e-01 -1.042349100112915039e+00 -1.684765696525573730e+00 -2.886248111724853516e+00 -1.072479009628295898e+00 9.003373384475708008e-01 1.017302274703979492e+00 1.692710071802139282e-01 -1.160146575421094894e-02 2.027830779552459717e-01 7.044238597154617310e-02 -2.388703376054763794e-01 -2.439315915107727051e-01 -7.826296240091323853e-02 7.993136346340179443e-02 1.607515960931777954e-01 4.656071215867996216e-02 -2.724188566207885742e-01 -4.167242944240570068e-01 -5.506556630134582520e-01 -1.390373706817626953e-01 1.173373833298683167e-01 1.913708299398422241e-01 -1.656493097543716431e-01 -3.981253802776336670e-01 -2.529236376285552979e-01 -3.492828905582427979e-01 -4.528359174728393555e-01 -9.779527783393859863e-01 -1.287101626396179199e+00 -2.373759984970092773e+00 -2.276415824890136719e+00 -1.610406041145324707e-01 1.136744499206542969e+00 6.663597226142883301e-01 4.464361444115638733e-02 1.846528351306915283e-01 2.353279143571853638e-01 7.738199830055236816e-02 -2.629817724227905273e-01 -9.926483035087585449e-02 4.018799960613250732e-02 2.178662568330764771e-01 1.718603074550628662e-01 9.671885520219802856e-02 -2.340052425861358643e-01 -2.210077345371246338e-01 -1.163355112075805664e-01 -6.705555319786071777e-02 1.875682324171066284e-01 -2.910286746919155121e-02 -3.205179423093795776e-02 -3.396375477313995361e-01 -2.300143390893936157e-01 -4.303947985172271729e-01 -4.797327816486358643e-01 -1.228880643844604492e+00 -1.817322731018066406e+00 -1.976176738739013672e+00 -9.580186009407043457e-01 4.591624140739440918e-01 8.289620876312255859e-01 1.481583416461944580e-01 -5.603294447064399719e-02 2.355679422616958618e-01 1.639492213726043701e-01 -5.978382006287574768e-02 -2.844350636005401611e-01 -1.859179437160491943e-01 6.983280181884765625e-02 2.446622550487518311e-01 1.364141255617141724e-01 6.035725399851799011e-02 -2.405911237001419067e-01 -1.651017963886260986e-01 2.157884463667869568e-02 1.940784454345703125e-01 2.445783317089080811e-01 2.215521968901157379e-02 -3.915768582373857498e-03 -1.579598039388656616e-01 -2.027679532766342163e-01 -4.182755053043365479e-01 -8.404942750930786133e-01 -1.514383077621459961e+00 -1.438132762908935547e+00 -9.459839463233947754e-01 -1.413677781820297241e-01 5.073494315147399902e-01 3.524954319000244141e-01 2.367252856492996216e-02 1.396298706531524658e-01 4.300473034381866455e-01 1.441165804862976074e-01 -2.294731885194778442e-01 -5.241551399230957031e-01 -3.292923867702484131e-01 4.749438166618347168e-02 1.650351583957672119e-01 1.478468347340822220e-02 -1.693111658096313477e-01 -3.121366202831268311e-01 -6.811477243900299072e-02 -8.752156980335712433e-03 7.585504651069641113e-02 1.730984747409820557e-01 7.402605563402175903e-02 1.395670790225267410e-02 -9.155970066785812378e-02 -3.058975040912628174e-01 -3.043674826622009277e-01 -5.561405420303344727e-01 -7.170169353485107422e-01 -5.004482269287109375e-01 -2.385707497596740723e-01 3.248264491558074951e-01 3.829823136329650879e-01 1.801333725452423096e-01 1.642505228519439697e-01 5.370720028877258301e-01 6.400581598281860352e-01 1.043443605303764343e-01 -4.108856320381164551e-01 -6.962529420852661133e-01 -4.001791477203369141e-01 9.602092951536178589e-02 1.420102119445800781e-01 -8.627102524042129517e-02 -3.231637179851531982e-01 -3.716026842594146729e-01 7.549393177032470703e-02 -1.587677188217639923e-02 -9.573659300804138184e-02 2.508418560028076172e-01 -1.426980132237076759e-03 -2.759285271167755127e-03 -8.610511198639869690e-03 -2.296907752752304077e-01 3.341617807745933533e-02 -1.412569731473922729e-01 -6.483877450227737427e-02 1.179961189627647400e-01 6.855753809213638306e-02 2.837960422039031982e-01 2.741627991199493408e-01 2.243421077728271484e-01 3.313564360141754150e-01 5.938616394996643066e-01 3.904976546764373779e-01 -2.841179072856903076e-02 -1.673547029495239258e-01 -2.516953349113464355e-01 -1.673948466777801514e-01 -6.367937475442886353e-02 -1.422734409570693970e-01 -1.319715827703475952e-01 -2.586296200752258301e-01 -1.429167389869689941e-01 1.140616312623023987e-01 -9.744934737682342529e-02 -2.222581356763839722e-01 3.352798521518707275e-01 6.179216504096984863e-02 7.660641800612211227e-03 -5.204878281801939011e-03 6.383826956152915955e-03 2.051801234483718872e-01 1.704649180173873901e-01 4.169560670852661133e-01 2.141714245080947876e-01 -3.343267599120736122e-05 2.259169891476631165e-02 2.637512981891632080e-01 4.025085568428039551e-01 4.176056087017059326e-01 4.094122052192687988e-01 1.486561745405197144e-01 6.417191773653030396e-02 2.196480184793472290e-01 2.435706704854965210e-01 -6.338012963533401489e-02 -3.923230767250061035e-01 -3.221156895160675049e-01 -2.157885134220123291e-01 -3.284807503223419189e-02 1.709566861391067505e-01 1.863822788000106812e-01 -1.663149567320942879e-03 1.298381090164184570e-01 4.306916892528533936e-01 1.392624974250793457e-01 1.243621390312910080e-02 -7.185751944780349731e-02 1.953215450048446655e-01 2.836738526821136475e-01 4.197049438953399658e-01 3.154843747615814209e-01 5.697822198271751404e-02 -2.307640612125396729e-01 3.377437219023704529e-02 2.905983030796051025e-01 4.351525604724884033e-01 2.805851697921752930e-01 8.540856838226318359e-02 -1.483424752950668335e-02 3.482803702354431152e-01 6.282885074615478516e-01 3.834912478923797607e-01 -1.775096356868743896e-01 -5.614510774612426758e-01 -4.831123352050781250e-01 -1.733702272176742554e-01 2.305191308259963989e-01 4.263742268085479736e-01 1.407065391540527344e-01 1.572839468717575073e-01 3.572761714458465576e-01 4.690740406513214111e-01 -1.505095977336168289e-02 -3.144270507618784904e-03 -6.711302697658538818e-02 -4.248967766761779785e-02 1.713823527097702026e-01 2.177734076976776123e-01 2.063398659229278564e-01 -1.268909424543380737e-01 -1.729223132133483887e-01 1.311246752738952637e-01 4.946807324886322021e-01 3.795402646064758301e-01 1.187559664249420166e-01 1.887812465429306030e-02 2.751795053482055664e-01 5.495585203170776367e-01 5.407837033271789551e-01 4.326733574271202087e-02 -4.051524996757507324e-01 -5.301324725151062012e-01 -4.925442337989807129e-01 3.770541027188301086e-02 4.151813983917236328e-01 4.488845169544219971e-01 3.240133523941040039e-01 3.399445712566375732e-01 4.134485721588134766e-01 4.549261033535003662e-01 1.103996932506561279e-01 5.986136849969625473e-03 -6.145640090107917786e-02 1.575189293362200260e-03 8.754443377256393433e-02 1.162094920873641968e-01 1.653404682874679565e-01 6.056339014321565628e-03 8.021298050880432129e-02 4.869051575660705566e-01 6.652702093124389648e-01 4.331732392311096191e-01 9.441246837377548218e-02 6.527975201606750488e-02 2.531784474849700928e-01 2.971470952033996582e-01 -1.373425722122192383e-01 -4.496316313743591309e-01 -5.910422801971435547e-01 -4.375198483467102051e-01 -1.774625331163406372e-01 1.108903363347053528e-01 2.357839196920394897e-01 3.313698172569274902e-01 3.615397214889526367e-01 2.571829557418823242e-01 1.998265534639358521e-01 4.020970165729522705e-01 -3.113545710220932961e-03 -3.739926591515541077e-02 -1.087396964430809021e-01 -4.252346977591514587e-02 1.316664963960647583e-01 -5.611619353294372559e-02 -5.717547610402107239e-02 -5.383605509996414185e-02 2.736826241016387939e-01 6.417467594146728516e-01 7.384111285209655762e-01 5.232711434364318848e-01 1.458151638507843018e-01 -1.009248197078704834e-01 -1.760656088590621948e-01 -3.242106437683105469e-01 -7.184841632843017578e-01 -6.911642551422119141e-01 -3.859340846538543701e-01 1.084125488996505737e-01 5.931834504008293152e-02 8.669458329677581787e-02 -1.679686754941940308e-01 1.849360764026641846e-01 1.789480149745941162e-01 -9.285828471183776855e-02 -9.446735680103302002e-02 7.917407900094985962e-02 -6.964901462197303772e-03 6.965461652725934982e-04 -2.359884232282638550e-02 7.209058851003646851e-03 8.654585108160972595e-03 -1.534854471683502197e-01 -1.678345501422882080e-01 -2.350637763738632202e-01 1.122869551181793213e-02 2.554643750190734863e-01 4.129014611244201660e-01 2.153946757316589355e-01 -6.959088146686553955e-02 -3.483819067478179932e-01 -5.310497283935546875e-01 -6.376640200614929199e-01 -6.179355978965759277e-01 -2.347103059291839600e-01 1.588747948408126831e-01 2.986451685428619385e-01 1.701309345662593842e-02 -5.484736561775207520e-01 -6.239827275276184082e-01 -3.101684451103210449e-01 -2.004720717668533325e-01 -1.098503246903419495e-01 -7.767861336469650269e-02 1.990704536437988281e-01 -3.820918966084718704e-03 -3.548269346356391907e-02 -7.548195309937000275e-03 -2.176362574100494385e-01 -2.979550883173942566e-02 -6.989924609661102295e-02 -1.210632845759391785e-01 -2.922523021697998047e-01 -3.739053606986999512e-01 -2.868518829345703125e-01 -3.025477528572082520e-01 -3.793307840824127197e-01 -5.110315084457397461e-01 -4.966917335987091064e-01 -4.234673380851745605e-01 -1.771316528320312500e-01 -2.145604044198989868e-02 1.247832477092742920e-01 3.781460523605346680e-01 2.608484327793121338e-01 -5.327061414718627930e-01 -8.918253183364868164e-01 -8.753825426101684570e-01 -5.369525551795959473e-01 -3.102917075157165527e-01 -2.930316030979156494e-01 -2.906411886215209961e-01 1.509831845760345459e-01 8.337917097378522158e-05 -3.249988704919815063e-02 1.424711197614669800e-02 -3.250110447406768799e-01 -2.040795236825942993e-01 7.943297177553176880e-02 -6.408542394638061523e-02 -1.921066641807556152e-01 -3.147723972797393799e-01 -4.953087568283081055e-01 -6.435655951499938965e-01 -6.184488534927368164e-01 -5.178984999656677246e-01 -2.514774501323699951e-01 6.281712651252746582e-02 2.059522569179534912e-01 2.120160907506942749e-01 1.106016784906387329e-01 1.525169610977172852e-01 -1.000537127256393433e-01 -6.626038551330566406e-01 -7.667512297630310059e-01 -8.763545751571655273e-01 -8.987873792648315430e-01 -6.909219026565551758e-01 -5.149376988410949707e-01 -2.054905742406845093e-01 4.687343165278434753e-02 -1.904139295220375061e-02 7.531626615673303604e-04 1.290923636406660080e-02 -9.143943339586257935e-02 -2.154071629047393799e-01 -3.268662840127944946e-02 1.244357600808143616e-01 8.887872844934463501e-02 -4.150817915797233582e-02 -2.201309353113174438e-01 -2.059126496315002441e-01 -1.098727956414222717e-01 -1.705922931432723999e-01 -1.480208933353424072e-01 1.341035403311252594e-02 3.163599967956542969e-02 -2.872917354106903076e-01 -3.168193101882934570e-01 8.358859270811080933e-02 -1.661540754139423370e-02 -4.325720071792602539e-01 -7.199543714523315430e-01 -2.910264432430267334e-01 -4.168290495872497559e-01 -2.308362871408462524e-01 -2.755446434020996094e-01 -1.582671403884887695e-01 -1.848588697612285614e-02 7.258600555360317230e-03 -1.573606580495834351e-02 5.753624252974987030e-03 -9.941602125763893127e-03 -1.246529668569564819e-01 -1.204201877117156982e-01 2.519659399986267090e-01 3.117318451404571533e-01 2.596882358193397522e-02 -2.386587858200073242e-01 -2.081189155578613281e-01 6.491984426975250244e-02 -1.249298229813575745e-01 -6.740143895149230957e-02 -1.025532260537147522e-01 3.469900414347648621e-02 -2.855278253555297852e-01 -1.691500097513198853e-01 1.637412011623382568e-01 1.673712581396102905e-01 -4.764022231101989746e-01 -4.083906114101409912e-01 -2.675454616546630859e-01 -3.905165195465087891e-01 -2.606801390647888184e-01 -2.421790957450866699e-01 -1.464397273957729340e-02 -1.005533244460821152e-02 1.444472838193178177e-02 7.459372282028198242e-03 3.171923453919589520e-04 -9.169246070086956024e-03 1.557325758039951324e-02 7.108127325773239136e-02 2.753608524799346924e-01 2.519203424453735352e-01 -1.153802871704101562e-01 -3.788829743862152100e-01 -3.337507843971252441e-01 -2.313483506441116333e-01 -2.481511980295181274e-01 -3.376236259937286377e-01 5.344071984291076660e-02 8.090439438819885254e-02 1.042935717850923538e-02 5.723789706826210022e-02 3.058363795280456543e-01 1.356551423668861389e-02 -4.377759695053100586e-01 -3.699082434177398682e-01 -2.316540330648422241e-01 -3.365360796451568604e-01 -9.508129209280014038e-02 -1.888888701796531677e-02 3.643335774540901184e-02 8.550193160772323608e-03 -1.687905192375183105e-02 -6.032003089785575867e-03 9.292218834161758423e-03 5.768147297203540802e-03 -4.547032993286848068e-03 -1.066262926906347275e-02 -1.424361467361450195e-01 -1.514087617397308350e-01 -1.557770818471908569e-01 -2.744600474834442139e-01 -4.259495735168457031e-01 -4.795960187911987305e-01 -3.276254534721374512e-01 -3.940762281417846680e-01 -2.760232388973236084e-01 -1.958366781473159790e-01 -3.303234279155731201e-01 -3.534444272518157959e-01 -3.574973940849304199e-01 -3.977528810501098633e-01 -2.682729959487915039e-01 -2.686499059200286865e-01 -1.401419639587402344e-01 -1.411795318126678467e-01 -4.820159636437892914e-03 -7.363727316260337830e-03 -2.053997106850147247e-02 -1.469664741307497025e-02 -4.435599781572818756e-03
-1.132351998239755630e-02 1.549358386546373367e-02 1.194660458713769913e-02 6.539287045598030090e-03 -3.139206767082214355e-02 1.862293481826782227e-02 8.091498166322708130e-04 -8.576282300055027008e-03 -4.519280046224594116e-03 3.405082505196332932e-03 5.146166775375604630e-03 1.723527163267135620e-02 5.952219944447278976e-03 1.417043060064315796e-01 2.105536125600337982e-02 1.615772396326065063e-02 2.117951167747378349e-03 -1.713463477790355682e-02 -1.149620977230370045e-03 -5.738324485719203949e-03 -2.031188830733299255e-02 -8.072008378803730011e-03 1.206724904477596283e-02 1.046996377408504486e-02 -1.505070272833108902e-02 -1.057937927544116974e-02 -1.155932247638702393e-02 2.732638735324144363e-03 -1.058334391564130783e-02 -2.129559963941574097e-02 -1.768870837986469269e-02 -1.741742528975009918e-02 -1.101230736821889877e-02 5.958579014986753464e-03 7.715933769941329956e-02 2.633474171161651611e-01 1.419983059167861938e-01 9.856800734996795654e-02 3.402867019176483154e-01 4.122323691844940186e-01 1.811496466398239136e-01 2.889472544193267822e-01 3.889615535736083984e-01 3.395922482013702393e-01 4.206653237342834473e-01 2.238958925008773804e-01 1.476441174745559692e-01 2.484182566404342651e-01 2.614116072654724121e-01 1.423884630203247070e-01 6.724371761083602905e-02 8.749128133058547974e-02 8.517995476722717285e-03 3.056620480492711067e-03 -8.956132456660270691e-03 -1.602746779099106789e-03 9.408663026988506317e-04 4.539269488304853439e-03 3.291972912847995758e-03 -1.144968159496784210e-02 1.130939498543739319e-01 -2.287408336997032166e-02 8.400036394596099854e-02 2.283844500780105591e-01 2.241027355194091797e-01 -9.285596013069152832e-02 2.774601336568593979e-03 2.322388738393783569e-01 -7.561589777469635010e-02 -1.098224371671676636e-01 -1.074384618550539017e-02 3.219383955001831055e-02 1.974502652883529663e-01 3.018359541893005371e-01 2.328865677118301392e-01 3.089904189109802246e-01 3.879149258136749268e-01 4.467545151710510254e-01 5.273388624191284180e-01 3.662876188755035400e-01 2.240732163190841675e-01 -8.946010470390319824e-02 1.946085831150412560e-03 -1.162061095237731934e-02 2.251734258607029915e-03 4.788786638528108597e-03 1.606048271059989929e-02 -4.550578538328409195e-03 4.802983719855546951e-03 -6.930939387530088425e-03 3.417347092181444168e-03 -1.993552967905998230e-02 -2.334773540496826172e-02 -1.186572536826133728e-01 1.483196858316659927e-02 8.302879333496093750e-02 1.619340926408767700e-01 5.732143670320510864e-02 9.192167222499847412e-02 2.013541758060455322e-01 2.840813696384429932e-01 2.705254554748535156e-01 1.974023133516311646e-01 1.674242913722991943e-01 4.293972849845886230e-01 5.520733594894409180e-01 7.390134334564208984e-01 5.050892233848571777e-01 3.347030580043792725e-01 -1.559902280569076538e-01 1.146320346742868423e-02 1.043919939547777176e-02 -2.831548918038606644e-03 6.027011200785636902e-03 3.133022785186767578e-02 2.255435287952423096e-02 -3.596501797437667847e-02 -8.056439459323883057e-02 -1.271488964557647705e-01 1.654345914721488953e-02 2.312182821333408356e-02 8.776303380727767944e-02 1.589888930320739746e-01 1.037537232041358948e-01 -1.869776472449302673e-02 -9.109456837177276611e-02 -2.463628053665161133e-01 -1.026956085115671158e-02 4.506451487541198730e-01 6.404395103454589844e-01 6.364133954048156738e-01 6.814182996749877930e-01 5.032176375389099121e-01 3.310611844062805176e-01 3.167750835418701172e-01 4.687960445880889893e-01 2.547448277473449707e-01 -2.456429153680801392e-01 -2.445119321346282959e-01 -2.040372043848037720e-02 -3.607175499200820923e-02 -2.348131872713565826e-02 4.596327431499958038e-03 1.053897663950920105e-02 -1.356933712959289551e-01 7.951822131872177124e-02 8.131986111402511597e-02 1.933941543102264404e-01 3.465807437896728516e-01 2.546787559986114502e-01 2.836034297943115234e-01 1.766259372234344482e-01 1.900850981473922729e-02 -1.948291063308715820e-01 -4.415856897830963135e-01 -2.876742184162139893e-01 3.080329596996307373e-01 7.915658354759216309e-01 1.061761617660522461e+00 1.228980302810668945e+00 1.729912161827087402e-01 -6.108153462409973145e-01 -4.573518633842468262e-01 -2.907418310642242432e-01 -2.608653008937835693e-01 -6.145290732383728027e-01 -5.170868039131164551e-01 8.270147256553173065e-03 -6.482001044787466526e-04 -1.245580147951841354e-02 -4.551367461681365967e-02 6.162498891353607178e-02 1.100074946880340576e-01 1.300616562366485596e-01 3.035040497779846191e-01 4.032276570796966553e-01 4.278103709220886230e-01 2.582002282142639160e-01 1.770205795764923096e-01 9.296084940433502197e-02 1.186515912413597107e-01 -4.584655165672302246e-03 -3.115869462490081787e-01 -1.380208581686019897e-01 2.977932393550872803e-01 6.569852232933044434e-01 1.067095518112182617e+00 5.597867965698242188e-01 -1.095764040946960449e+00 -1.997114300727844238e+00 -1.611014366149902344e+00 -1.304661631584167480e+00 -1.419496893882751465e+00 -1.170919656753540039e+00 -8.341850638389587402e-01 -2.990613877773284912e-01 -1.306409598328173161e-03 2.629639953374862671e-02 -6.315838545560836792e-02 9.049630723893642426e-03 1.275946106761693954e-02 1.341945230960845947e-01 2.652058601379394531e-01 3.625103831291198730e-01 2.762292325496673584e-01 9.878636151552200317e-02 -1.063910964876413345e-02 3.709269687533378601e-02 1.363081932067871094e-01 6.220600754022598267e-02 -1.832761913537979126e-01 -8.065710961818695068e-02 1.859503835439682007e-01 6.141123771667480469e-01 6.802671551704406738e-01 -6.062856316566467285e-01 -2.360497474670410156e+00 -2.696174383163452148e+00 -2.171579837799072266e+00 -1.982297182083129883e+00 -2.033603191375732422e+00 -1.508902549743652344e+00 -8.484448194503784180e-01 -2.018241882324218750e-01 8.389798551797866821e-02 -2.108530513942241669e-02 -1.907907240092754364e-02 -1.705984920263290405e-01 1.085890606045722961e-01 1.642142236232757568e-01 1.664199978113174438e-01 6.088423728942871094e-02 8.989531546831130981e-02 -1.394931972026824951e-01 -1.143664866685867310e-01 1.748806238174438477e-01 2.500103712081909180e-01 6.364829838275909424e-02 -3.959166705608367920e-01 -2.193372547626495361e-01 2.260550260543823242e-01 7.731591463088989258e-01 7.098464965820312500e-01 -1.183936238288879395e+00 -3.256143569946289062e+00 -2.743458032608032227e+00 -1.972489237785339355e+00 -2.004317998886108398e+00 -2.185389995574951172e+00 -1.575721621513366699e+00 -7.853044271469116211e-01 -3.181313276290893555e-01 -4.156488459557294846e-03 -1.384395807981491089e-01 -4.182015657424926758e-01 -2.174053341150283813e-01 -1.541065722703933716e-01 -1.270773261785507202e-01 -1.160068288445472717e-01 -8.452689647674560547e-02 -5.659116432070732117e-02 -1.490034312009811401e-01 -2.115328796207904816e-02 2.072215229272842407e-01 2.426004111766815186e-01 -2.567315101623535156e-01 -5.033488869667053223e-01 -5.921836569905281067e-02 6.162424683570861816e-01 1.064575076103210449e+00 5.603901743888854980e-01 -1.424455165863037109e+00 -3.505100250244140625e+00 -2.431052684783935547e+00 -1.582803726196289062e+00 -1.823180198669433594e+00 -1.863432765007019043e+00 -1.508113265037536621e+00 -5.816935896873474121e-01 -1.918890625238418579e-01 3.433707728981971741e-02 -2.588410973548889160e-01 -3.558183610439300537e-01 -3.429765403270721436e-01 -2.773777246475219727e-01 -3.210656344890594482e-01 -2.335267066955566406e-01 -2.233340144157409668e-01 -1.980935782194137573e-01 -1.078399643301963806e-01 1.088350489735603333e-01 1.837514638900756836e-01 8.803843706846237183e-02 -2.231699377298355103e-01 -1.891087591648101807e-01 2.794177532196044922e-01 6.937649250030517578e-01 7.192945480346679688e-01 1.914135217666625977e-01 -1.667747139930725098e+00 -3.556680202484130859e+00 -2.590436697006225586e+00 -1.736093878746032715e+00 -1.555335760116577148e+00 -1.344894170761108398e+00 -9.718061089515686035e-01 -4.458089768886566162e-01 -2.628488242626190186e-01 5.422202870249748230e-02 2.362864091992378235e-02 -3.710192143917083740e-01 -3.996494710445404053e-01 -4.064927101135253906e-01 -4.305372536182403564e-01 -2.705081999301910400e-01 -2.734806835651397705e-01 -7.549569010734558105e-02 -3.298770263791084290e-02 1.644123196601867676e-01 1.433673053979873657e-01 8.077374100685119629e-02 -6.148923188447952271e-02 4.608331713825464249e-03 2.963787615299224854e-01 4.038381278514862061e-01 3.895937800407409668e-01 1.888673454523086548e-01 -1.118036031723022461e+00 -2.684468030929565430e+00 -2.639867782592773438e+00 -2.049559593200683594e+00 -1.566468358039855957e+00 -1.092181682586669922e+00 -7.735634446144104004e-01 -3.506710231304168701e-01 1.433704327791929245e-02 3.035520389676094055e-02 -1.888841092586517334e-01 -4.762583971023559570e-01 -5.974230170249938965e-01 -5.782157778739929199e-01 -3.876430988311767578e-01 -3.018320798873901367e-01 -2.199231833219528198e-01 -6.151707097887992859e-02 3.901230404153466225e-03 4.971602931618690491e-02 1.822023242712020874e-01 2.482325434684753418e-01 1.192398834973573685e-02 -9.404730051755905151e-03 -9.150431491434574127e-03 1.405179649591445923e-01 5.001484751701354980e-01 8.172816634178161621e-01 3.405865132808685303e-01 -9.899878501892089844e-01 -1.232129335403442383e+00 -1.050572991371154785e+00 -8.004950881004333496e-01 -3.198542296886444092e-01 1.122433841228485107e-01 2.524635791778564453e-01 3.757394105195999146e-02 -2.476892899721860886e-03 6.130158528685569763e-02 -4.769951999187469482e-01 -7.438594698905944824e-01 -4.635017514228820801e-01 -3.695658445358276367e-01 -2.128787040710449219e-01 -6.576118618249893188e-02 -7.192805409431457520e-02 -4.347417503595352173e-02 -2.867720089852809906e-02 1.116808280348777771e-01 1.707917451858520508e-01 -4.820952564477920532e-02 -2.463073134422302246e-01 -2.110535055398941040e-01 1.599993556737899780e-01 6.947564482688903809e-01 1.247449278831481934e+00 1.011592984199523926e+00 4.992483854293823242e-01 -9.063837677240371704e-02 4.919221252202987671e-02 1.698320917785167694e-02 1.955502182245254517e-01 4.099014103412628174e-01 4.905843436717987061e-01 1.288962960243225098e-01 -6.729289423674345016e-03 -1.664085313677787781e-02 -2.934838533401489258e-01 -7.158709764480590820e-01 -8.454368263483047485e-02 -2.113201767206192017e-01 -2.242752164602279663e-01 -7.828047499060630798e-03 -5.691748857498168945e-02 -1.244002580642700195e-01 -6.389274448156356812e-02 1.189742982387542725e-01 3.198515251278877258e-02 -2.076012641191482544e-01 -2.505265772342681885e-01 -9.010075591504573822e-03 2.631456255912780762e-01 6.177433729171752930e-01 9.180512428283691406e-01 8.839369416236877441e-01 8.429026603698730469e-01 4.247851669788360596e-01 4.599968492984771729e-01 3.525423109531402588e-01 3.402568995952606201e-01 5.588682293891906738e-01 3.144080638885498047e-01 -3.033718280494213104e-02 -1.545272022485733032e-02 -8.017124980688095093e-02 -2.660403847694396973e-01 -4.165280163288116455e-01 -2.219793573021888733e-02 -6.135847792029380798e-02 -1.062093973159790039e-01 9.828511392697691917e-04 -5.646907165646553040e-02 6.382555700838565826e-03 -1.495430525392293930e-02 6.335474550724029541e-02 1.497204322367906570e-02 -1.610421687364578247e-01 -1.662956625223159790e-01 1.200789287686347961e-01 3.593218624591827393e-01 4.152584373950958252e-01 4.358282089233398438e-01 3.438366949558258057e-01 2.959514856338500977e-01 1.881913989782333374e-01 5.113697052001953125e-01 5.729133486747741699e-01 4.316821098327636719e-01 7.235037684440612793e-01 3.778941631317138672e-01 7.621702551841735840e-02 -8.525962010025978088e-03 -1.034069689922034740e-03 -3.784211575984954834e-01 -4.525012373924255371e-01 3.452495336532592773e-01 -5.653264746069908142e-02 -2.478641569614410400e-01 -7.529141008853912354e-02 -4.274560511112213135e-02 1.715472899377346039e-02 2.079247869551181793e-02 1.017040535807609558e-01 3.425673814490437508e-03 -1.229572370648384094e-01 -1.826769858598709106e-01 6.528261303901672363e-02 1.878367215394973755e-01 9.560184925794601440e-02 1.543138623237609863e-01 -2.344257570803165436e-02 -6.182706356048583984e-02 7.958555221557617188e-02 4.396612942218780518e-01 5.152611136436462402e-01 6.006819605827331543e-01 6.723504066467285156e-01 3.398729264736175537e-01 8.860915899276733398e-02 -1.345853693783283234e-02 8.499000221490859985e-02 -2.762382626533508301e-01 -4.679045379161834717e-01 1.589723676443099976e-01 -3.461490869522094727e-01 -4.109568297863006592e-01 -2.675578296184539795e-01 -8.052466064691543579e-02 -5.015086010098457336e-02 1.888076402246952057e-02 1.930726617574691772e-01 6.801033020019531250e-02 -8.118541538715362549e-02 -2.241483777761459351e-01 -5.547117441892623901e-03 -4.127278178930282593e-02 -2.034684829413890839e-02 1.032420992851257324e-01 -6.682194769382476807e-02 -1.306688636541366577e-01 4.306745715439319611e-03 3.873572051525115967e-01 3.898403048515319824e-01 3.867864012718200684e-01 3.523046076297760010e-01 2.949222624301910400e-01 -5.616011185338720679e-05 -4.001437220722436905e-03 4.205394163727760315e-02 -4.113145172595977783e-01 -5.466615557670593262e-01 -1.437187194824218750e-01 -4.268448352813720703e-01 -4.586156904697418213e-01 -1.760256290435791016e-01 -3.695207089185714722e-02 -5.131269246339797974e-02 7.306164503097534180e-02 1.847331523895263672e-01 1.269908547401428223e-01 -7.834448665380477905e-02 -1.074305921792984009e-01 -1.432567983865737915e-01 -9.621328115463256836e-02 -4.142188467085361481e-03 2.073531001806259155e-01 9.340002387762069702e-02 -5.664784461259841919e-02 -1.132135745137929916e-02 2.056822627782821655e-01 9.206490218639373779e-02 1.602930575609207153e-01 2.474858909845352173e-01 2.192150056362152100e-01 1.365603599697351456e-02 -6.591974757611751556e-03 3.141292557120323181e-02 -4.850841760635375977e-01 -5.147001147270202637e-01 -2.230699509382247925e-01 -3.321178853511810303e-01 -3.386760354042053223e-01 -1.971505731344223022e-01 1.382193062454462051e-02 -6.910061929374933243e-03 3.227031603455543518e-02 1.338347941637039185e-01 3.920016810297966003e-02 -1.588239222764968872e-01 -2.324799150228500366e-01 -1.889910846948623657e-01 6.134872511029243469e-02 1.023390963673591614e-01 2.037704885005950928e-01 1.820195764303207397e-01 9.780622273683547974e-02 -3.271985799074172974e-02 -4.252297803759574890e-03 -2.842921577394008636e-02 8.867862820625305176e-02 1.896432191133499146e-01 3.351654112339019775e-01 1.545602269470691681e-02 -1.885078474879264832e-02 1.124396324157714844e-01 -3.843280971050262451e-01 -5.109132528305053711e-01 -2.186267822980880737e-01 -1.602768748998641968e-01 -3.596304953098297119e-01 -2.851129472255706787e-01 -2.385427057743072510e-01 -1.084565669298171997e-01 -6.976876407861709595e-02 -3.709736838936805725e-02 -7.232367247343063354e-02 -1.810650378465652466e-01 -9.103339165449142456e-02 1.195937842130661011e-01 1.653181165456771851e-01 1.598853617906570435e-01 1.945140659809112549e-01 2.406520545482635498e-01 1.449551880359649658e-01 1.982188224792480469e-02 -5.526397377252578735e-02 -2.288344874978065491e-02 1.306289285421371460e-01 2.844330072402954102e-01 2.912819385528564453e-01 -9.161937981843948364e-03 -9.092597290873527527e-03 2.163064852356910706e-02 -2.780071794986724854e-01 -3.321014344692230225e-01 -6.387647986412048340e-02 -2.568100951611995697e-02 -2.444925457239151001e-01 -2.563075125217437744e-01 -1.942215114831924438e-01 -1.102961897850036621e-01 -1.170789077877998352e-01 -1.500535160303115845e-01 -1.433561593294143677e-01 1.518004108220338821e-03 6.369493156671524048e-02 4.894501343369483948e-02 1.573038101196289062e-01 8.258001506328582764e-02 1.431797742843627930e-01 2.381021082401275635e-01 1.351816654205322266e-01 1.457694470882415771e-01 -1.921901293098926544e-02 -2.114497274160385132e-01 8.474749326705932617e-02 2.896012067794799805e-01 2.644930779933929443e-01 6.397496443241834641e-03 -6.060804426670074463e-02 -6.232454441487789154e-03 -1.111543476581573486e-01 -9.536107629537582397e-02 -4.465457424521446228e-02 1.520731151103973389e-01 -6.851014494895935059e-02 -2.028516083955764771e-01 -8.026324957609176636e-02 -2.956035546958446503e-02 -3.473474457859992981e-02 -5.149688199162483215e-02 1.955611445009708405e-02 3.715730272233486176e-03 -8.893495798110961914e-02 -1.227155178785324097e-01 -1.461357176303863525e-01 -1.292413622140884399e-01 1.938187889754772186e-02 1.879769563674926758e-01 1.718405336141586304e-01 4.097808524966239929e-02 8.700589649379253387e-03 -1.836660653352737427e-01 1.455660164356231689e-01 2.118078470230102539e-01 1.175966709852218628e-01 -5.218375939875841141e-03 -2.381977252662181854e-02 -1.285880059003829956e-02 3.305901587009429932e-02 8.052038401365280151e-02 -2.030467540025711060e-01 -1.902712136507034302e-02 2.316068410873413086e-01 1.136422678828239441e-01 -3.655165806412696838e-02 -1.182355061173439026e-01 -1.056592091917991638e-01 -1.989325731992721558e-01 -1.069133281707763672e-01 -9.908728301525115967e-02 -2.633935809135437012e-01 -2.710812985897064209e-01 -2.210858315229415894e-01 -2.581572234630584717e-01 -8.053740859031677246e-02 3.244363144040107727e-02 3.092185594141483307e-02 -8.951548486948013306e-02 -4.591902345418930054e-02 -1.124938204884529114e-01 1.241528615355491638e-01 1.996433883905410767e-01 4.460063576698303223e-02 4.438664764165878296e-03 9.534083656035363674e-04 -6.699996069073677063e-03 -6.770106032490730286e-03 -7.632201164960861206e-02 -2.204993367195129395e-02 -6.183481216430664062e-02 1.372876465320587158e-01 -5.771604180335998535e-02 -1.481277197599411011e-01 -2.440611124038696289e-01 -2.741641700267791748e-01 -2.873373627662658691e-01 -1.945042312145233154e-01 -1.710638254880905151e-01 -1.859960108995437622e-01 -1.180729791522026062e-01 -2.124760597944259644e-01 -2.027475982904434204e-01 -1.840563565492630005e-01 -2.085108757019042969e-01 -2.542779147624969482e-01 -5.573184788227081299e-02 -1.701977252960205078e-01 -1.905347779393196106e-02 1.752124577760696411e-01 3.452457860112190247e-02 -8.284249342978000641e-03 1.451358199119567871e-03 1.429928187280893326e-02 1.661512255668640137e-02 1.447302103042602539e-02 -1.338584125041961670e-01 -3.977620899677276611e-01 -2.980317175388336182e-01 -3.005646467208862305e-01 -8.543012738227844238e-01 -6.015228033065795898e-01 -6.422495245933532715e-01 -4.722025692462921143e-01 -2.581070363521575928e-01 -3.340759873390197754e-01 -1.477428227663040161e-01 -7.281783968210220337e-02 5.499866791069507599e-03 -2.358874082565307617e-01 -2.544077038764953613e-01 -2.558019161224365234e-01 -3.046542406082153320e-01 -1.967916339635848999e-01 -1.979036033153533936e-01 -1.166037097573280334e-01 3.266210481524467468e-02 8.099533617496490479e-02 -2.388386055827140808e-03 -2.170662581920623779e-02 -5.326045677065849304e-03 -1.264060661196708679e-02 -4.435366485267877579e-03 -2.716208435595035553e-02 -1.324486732482910156e-02 -2.284187972545623779e-01 -2.988320887088775635e-01 -3.294743001461029053e-01 -6.741755008697509766e-01 -3.389649391174316406e-01 -3.063058555126190186e-01 -2.577078342437744141e-01 -4.859178662300109863e-01 -4.673855602741241455e-01 -3.054078854620456696e-02 1.966192424297332764e-01 9.955494105815887451e-02 -2.217820659279823303e-02 -6.339022517204284668e-02 -1.737077981233596802e-01 -2.542687952518463135e-01 -3.543235361576080322e-01 -1.967809647321701050e-01 -1.813562512397766113e-01 5.233447253704071045e-02 5.694895517081022263e-03 1.221284177154302597e-02 -1.751315779983997345e-02 1.482118014246225357e-02 -5.251071881502866745e-03 8.617435581982135773e-03 -5.681155715137720108e-03 7.254107040353119373e-04 -8.859288878738880157e-03 -2.609593570232391357e-01 -1.889900416135787964e-01 -1.739574521780014038e-01 -2.941830754280090332e-01 -4.758593142032623291e-01 -2.935710549354553223e-01 -4.500751495361328125e-01 -3.839744925498962402e-01 -1.894303858280181885e-01 8.218839764595031738e-02 9.129566699266433716e-02 6.076461821794509888e-02 1.374411284923553467e-01 3.349500475451350212e-03 -1.784993708133697510e-01 -1.508699655532836914e-01 -1.510537549620494246e-04 -2.196610569953918457e-01 1.531805191189050674e-02 -6.425349973142147064e-03 -2.192320860922336578e-02 -1.738406531512737274e-02 3.631443018093705177e-03
1.061671227216720581e-02 -6.875683087855577469e-03 -3.788226167671382427e-04 -1.270670793019235134e-03 -4.909187555313110352e-03 5.914015695452690125e-03 1.670471206307411194e-02 3.721692366525530815e-03 -1.456420309841632843e-02 1.805864833295345306e-02 3.274891991168260574e-03 1.569981314241886139e-02 -5.942618008702993393e-03 -4.690948128700256348e-02 -5.016273632645606995e-02 1.315317489206790924e-02 -3.307845443487167358e-02 4.591232165694236755e-03 1.469593122601509094e-02 5.041376687586307526e-03 1.102572120726108551e-02 -2.742036595009267330e-04 1.788091845810413361e-02 2.461367752403020859e-03 -4.543862771242856979e-03 -3.374369069933891296e-02 -1.972552388906478882e-02 4.760564770549535751e-03 -1.067923381924629211e-02 2.151771914213895798e-03 2.373637817800045013e-02 2.276340266689658165e-03 9.853219613432884216e-03 -2.190977800637483597e-03 -1.572287455201148987e-02 1.514010224491357803e-02 -2.334785014390945435e-01 -2.951636910438537598e-01 -4.482775926589965820e-01 -4.322381615638732910e-01 -2.731542885303497314e-01 1.809321790933609009e-01 -7.976893335580825806e-02 -7.173774391412734985e-02 -3.439407348632812500e-01 -2.695280015468597412e-01 -3.428817912936210632e-02 -8.998560905456542969e-02 -3.698539435863494873e-01 -1.206685900688171387e-01 -1.518409401178359985e-01 -1.076788753271102905e-01 5.187637638300657272e-03 -2.506755292415618896e-02 -9.851025417447090149e-03 -4.007060546427965164e-03 -1.136643439531326294e-02 -4.285766277462244034e-03 2.255468443036079407e-02 1.196957193315029144e-03 -1.105526089668273926e-01 -2.379887923598289490e-02 -2.788146436214447021e-01 -2.533960342407226562e-01 -1.751858144998550415e-01 -2.662199139595031738e-01 -3.382807672023773193e-01 -2.525497078895568848e-01 1.394040435552597046e-01 1.298248860985040665e-02 -6.963480263948440552e-02 9.775776416063308716e-03 2.632805109024047852e-01 4.270353913307189941e-01 -6.656122952699661255e-02 -7.243913412094116211e-01 -9.507216215133666992e-01 -7.398355603218078613e-01 -5.716948509216308594e-01 -4.463281035423278809e-01 -2.374006807804107666e-01 -1.489894837141036987e-01 -1.908359001390635967e-03 -8.161106961779296398e-04 -5.732039455324411392e-03 5.315457005053758621e-03 1.839035190641880035e-02 1.710047759115695953e-02 -1.288491021841764450e-02 -2.638563215732574463e-01 -2.304937541484832764e-01 -4.830820560455322266e-01 -3.742938041687011719e-01 -3.707584738731384277e-01 -6.688895821571350098e-01 -3.066650331020355225e-01 -1.716022491455078125e-01 -2.713911235332489014e-01 -4.437328502535820007e-02 1.663158237934112549e-01 2.757292091846466064e-01 1.480825096368789673e-01 -6.705034524202346802e-02 -5.741487145423889160e-01 -7.720462083816528320e-01 -6.484511494636535645e-01 -8.683454394340515137e-01 -5.540940761566162109e-01 -4.727903008460998535e-01 -1.896619349718093872e-01 5.692733917385339737e-03 -8.392216404899954796e-04 -1.159543730318546295e-02 -4.740360192954540253e-03 7.214402407407760620e-02 -7.774407975375652313e-03 9.627039544284343719e-03 3.995443228632211685e-03 -1.637068092823028564e-01 -1.379914879798889160e-01 -2.312971651554107666e-01 -3.616157472133636475e-01 -4.969057440757751465e-01 -4.227028787136077881e-01 -2.494604736566543579e-01 -2.592573761940002441e-01 -1.063500717282295227e-01 4.522969946265220642e-02 -1.384771019220352173e-01 -6.848770976066589355e-01 -9.021645784378051758e-01 -6.555103063583374023e-01 -3.678949475288391113e-01 -2.021002322435379028e-01 -4.377995133399963379e-01 -8.783973455429077148e-01 -1.030900120735168457e+00 -7.878908514976501465e-01 -3.502294123172760010e-01 -3.418139368295669556e-02 -1.606767997145652771e-02 -1.597650907933712006e-02 1.052957866340875626e-02 1.228245198726654053e-01 1.900922954082489014e-01 2.177070528268814087e-01 1.939633488655090332e-01 1.006667129695415497e-02 -2.493408322334289551e-01 -2.384652197360992432e-01 -2.371206134557723999e-01 -9.439409524202346802e-02 -1.168116088956594467e-02 7.557600736618041992e-02 2.054851502180099487e-01 3.598282039165496826e-01 7.088382542133331299e-02 -4.998746216297149658e-01 -5.972856283187866211e-01 -1.904696524143218994e-01 1.195136532187461853e-01 2.945892810821533203e-01 -5.181250348687171936e-02 -6.163015365600585938e-01 -6.768946647644042969e-01 -7.715874314308166504e-01 -5.293346643447875977e-01 1.873742602765560150e-02 6.402599625289440155e-03 -1.098690181970596313e-02 1.477420330047607422e-01 2.777242064476013184e-01 1.412950009107589722e-01 3.074036240577697754e-01 1.535450965166091919e-01 3.821592405438423157e-02 5.172189790755510330e-03 -6.540182232856750488e-02 -3.876822069287300110e-02 1.159231662750244141e-01 2.549929320812225342e-01 3.547139167785644531e-01 3.756696283817291260e-01 5.327687263488769531e-01 2.063350081443786621e-01 -1.253782063722610474e-01 -1.661348193883895874e-01 1.736336499452590942e-01 4.129739701747894287e-01 2.218208760023117065e-01 -2.471546083688735962e-01 -6.621734499931335449e-01 -6.040716767311096191e-01 -5.655324459075927734e-01 -6.548706889152526855e-01 -2.961896359920501709e-01 1.315783523023128510e-02 1.182219013571739197e-01 1.928505450487136841e-01 1.926350295543670654e-01 2.255783975124359131e-01 2.858563065528869629e-01 3.079523146152496338e-01 1.785027235746383667e-01 6.082038581371307373e-02 -2.142552286386489868e-01 -1.542332172393798828e-01 5.673760920763015747e-02 2.516044974327087402e-01 2.068007141351699829e-01 2.905176579952239990e-01 4.169900417327880859e-01 3.788313269615173340e-02 -2.102831304073333740e-01 -2.467073872685432434e-02 4.554688334465026855e-01 4.273284077644348145e-01 -1.214227899909019470e-01 -5.695410370826721191e-01 -7.544327974319458008e-01 -5.983937978744506836e-01 -5.327428579330444336e-01 -5.942981243133544922e-01 -2.314582616090774536e-01 6.575310975313186646e-02 1.685471683740615845e-01 1.432057172060012817e-01 3.236593306064605713e-01 2.937963604927062988e-01 4.775806665420532227e-01 3.576283752918243408e-01 3.324877023696899414e-01 5.162597075104713440e-02 -3.383938670158386230e-01 -2.554849386215209961e-01 1.258158981800079346e-01 2.188416272401809692e-01 1.333468705415725708e-01 2.375232428312301636e-01 1.249743625521659851e-01 -3.504359424114227295e-01 -5.786803364753723145e-01 -9.035092592239379883e-02 3.930613994598388672e-01 1.917161196470260620e-01 -3.552626669406890869e-01 -5.635517239570617676e-01 -7.370388507843017578e-01 -6.375552415847778320e-01 -9.358069300651550293e-01 -9.844768047332763672e-01 -3.202448785305023193e-01 5.519556626677513123e-02 1.989335268735885620e-01 2.076333910226821899e-01 3.506939411163330078e-01 4.180982112884521484e-01 5.873833894729614258e-01 5.011894702911376953e-01 3.975224494934082031e-01 -1.667642407119274139e-02 -4.020494222640991211e-01 -1.892305910587310791e-01 2.695227563381195068e-01 3.728963136672973633e-01 2.594600915908813477e-01 3.679288923740386963e-01 7.159197330474853516e-02 -5.558874607086181641e-01 -6.702452898025512695e-01 -1.348693482577800751e-02 3.727055490016937256e-01 -9.941698610782623291e-02 -4.334252774715423584e-01 -2.722187340259552002e-01 -1.509847491979598999e-01 -3.669336140155792236e-01 -1.073580145835876465e+00 -6.761489510536193848e-01 -7.944528758525848389e-02 5.166121572256088257e-02 1.543985903263092041e-01 2.440484613180160522e-01 4.008372426033020020e-01 5.421696901321411133e-01 5.294290184974670410e-01 4.950966536998748779e-01 3.969476521015167236e-01 -9.974570572376251221e-02 -5.485984683036804199e-01 -1.089026108384132385e-01 2.521886825561523438e-01 1.197570785880088806e-01 1.625838726758956909e-01 1.890988200902938843e-01 -8.841284364461898804e-02 -4.800735712051391602e-01 -3.785567879676818848e-01 1.388218253850936890e-01 2.433314472436904907e-01 -2.906861603260040283e-01 -4.114562571048736572e-01 -1.064874976873397827e-01 7.321982644498348236e-03 -4.211044013500213623e-01 -6.397321224212646484e-01 -6.657903790473937988e-01 -1.410066932439804077e-01 1.798645257949829102e-01 2.044694870710372925e-01 2.605191171169281006e-01 4.238761067390441895e-01 5.686604976654052734e-01 5.042190551757812500e-01 4.450345933437347412e-01 3.737210035324096680e-01 -2.841809391975402832e-01 -5.820307135581970215e-01 -1.412903666496276855e-01 -3.886932879686355591e-02 -1.758607663214206696e-02 5.303133651614189148e-02 1.755698770284652710e-01 -5.487718060612678528e-02 -3.243142664432525635e-01 -1.059983745217323303e-01 1.491562277078628540e-01 4.320734366774559021e-02 -3.103730976581573486e-01 -4.518303871154785156e-01 -2.264850772917270660e-02 1.651500612497329712e-01 -1.155470386147499084e-01 -3.071171641349792480e-01 -2.442388683557510376e-01 -1.152801886200904846e-01 4.727980867028236389e-02 1.701328903436660767e-01 2.023385316133499146e-01 4.034829735755920410e-01 5.793490409851074219e-01 4.165120124816894531e-01 4.350854754447937012e-01 3.183257281780242920e-01 -4.045544266700744629e-01 -5.211382508277893066e-01 -1.042580828070640564e-01 1.051014736294746399e-01 3.069403022527694702e-02 1.360981762409210205e-01 2.991347610950469971e-01 3.677587583661079407e-02 -1.321146190166473389e-01 -9.907963685691356659e-03 9.436170011758804321e-02 -8.785410225391387939e-02 -3.065091371536254883e-01 -3.956900238990783691e-01 1.305282711982727051e-01 1.262665092945098877e-01 -2.880762815475463867e-01 -3.588448166847229004e-01 -3.636388778686523438e-01 -6.807043403387069702e-02 1.755918934941291809e-02 1.068359687924385071e-01 2.011443078517913818e-01 2.532328963279724121e-01 5.456327795982360840e-01 3.669836819171905518e-01 3.393575251102447510e-01 3.081749379634857178e-01 -1.743704974651336670e-01 -3.016577661037445068e-01 -4.571016877889633179e-02 2.336962670087814331e-01 1.819638758897781372e-01 3.558742105960845947e-01 3.181728422641754150e-01 1.261770818382501602e-02 2.851789444684982300e-02 3.175863623619079590e-02 1.022747978568077087e-01 6.850291788578033447e-02 -1.005060076713562012e-01 -1.929958760738372803e-01 3.281372040510177612e-02 -2.196209281682968140e-01 -3.412345051765441895e-01 -6.589768528938293457e-01 -5.213094949722290039e-01 -1.478330194950103760e-01 -1.074264571070671082e-02 3.613850101828575134e-02 1.603184044361114502e-01 1.534550637006759644e-01 1.244716718792915344e-01 9.862188994884490967e-02 4.289203286170959473e-01 4.890979230403900146e-01 2.612858451902866364e-02 -2.241785675287246704e-01 1.362698674201965332e-01 3.544529378414154053e-01 4.061626791954040527e-01 3.656174242496490479e-01 3.478061035275459290e-02 -1.657155007123947144e-01 -1.564044207334518433e-01 2.141764387488365173e-02 1.087356135249137878e-01 2.274404615163803101e-01 6.623498629778623581e-04 -3.423250466585159302e-02 2.504567056894302368e-02 -3.965695798397064209e-01 -3.585856258869171143e-01 -6.995178461074829102e-01 -3.546442091464996338e-01 -9.018898010253906250e-03 1.681979373097419739e-02 -3.080149739980697632e-02 1.203530579805374146e-01 -1.227619647979736328e-01 -3.694990277290344238e-01 -4.735624194145202637e-01 1.434723585844039917e-01 4.673070907592773438e-01 -9.679880738258361816e-02 -8.824014663696289062e-02 2.537337839603424072e-01 5.834037661552429199e-01 6.697351932525634766e-01 1.964989006519317627e-01 -2.406323105096817017e-01 -5.022459030151367188e-01 -3.781960010528564453e-01 -1.040454134345054626e-01 6.539205461740493774e-02 1.876768916845321655e-01 1.564491093158721924e-01 -1.951968669891357422e-01 1.127871498465538025e-01 -5.378683805465698242e-01 -6.431357264518737793e-01 -5.590445399284362793e-01 -5.628446340560913086e-01 -1.583545804023742676e-01 -9.905456681735813618e-05 -9.881950914859771729e-03 -4.248243868350982666e-01 -3.732941448688507080e-01 -1.116711974143981934e+00 -1.232148170471191406e+00 -7.263965606689453125e-01 -1.770687848329544067e-01 -6.271533966064453125e-01 -4.450797736644744873e-01 1.754925251007080078e-01 6.571786403656005859e-01 4.832554459571838379e-01 -1.655846647918224335e-02 -4.027277231216430664e-01 -4.796688258647918701e-01 -2.942368090152740479e-01 -1.481605321168899536e-01 4.705784469842910767e-02 2.522543370723724365e-01 1.842255145311355591e-01 -1.484459191560745239e-01 2.398757264018058777e-02 -6.208370923995971680e-01 -6.981634497642517090e-01 -9.197494387626647949e-01 -6.136555075645446777e-01 -9.630028158426284790e-02 -2.927377633750438690e-02 -1.788099296391010284e-03 -1.448764055967330933e-01 -6.092103719711303711e-01 -1.337302803993225098e+00 -1.700863361358642578e+00 -1.562589645385742188e+00 -1.182201147079467773e+00 -1.448477268218994141e+00 -1.270214080810546875e+00 -5.518585443496704102e-01 -2.801460027694702148e-02 -1.739100217819213867e-01 -3.445224165916442871e-01 -2.886633276939392090e-01 -1.126896068453788757e-01 1.785606704652309418e-02 1.442648377269506454e-02 1.325586885213851929e-01 2.165704816579818726e-01 1.526075899600982666e-01 -7.819086313247680664e-02 -6.420494616031646729e-02 -5.389026403427124023e-01 -5.101361870765686035e-01 -4.492221772670745850e-01 -3.785200417041778564e-01 1.194159686565399170e-02 -1.879802905023097992e-02 1.690702699124813080e-02 5.637027695775032043e-02 -4.698060452938079834e-01 -8.508043289184570312e-01 -1.565654158592224121e+00 -1.623569488525390625e+00 -1.760091781616210938e+00 -2.065868854522705078e+00 -1.662979125976562500e+00 -8.485834002494812012e-01 -1.790209114551544189e-01 -2.637381255626678467e-01 -3.245931863784790039e-01 -1.679543778300285339e-02 1.866207271814346313e-01 2.124774605035781860e-01 1.393006592988967896e-01 2.159489244222640991e-01 2.207359522581100464e-01 2.685665786266326904e-01 -7.232942432165145874e-02 5.879083648324012756e-02 -3.905466198921203613e-01 -2.557077705860137939e-01 -2.225446105003356934e-01 -3.445489108562469482e-01 -1.637233421206474304e-02 2.073959680274128914e-03 3.736749291419982910e-02 4.773842990398406982e-01 3.398343920707702637e-01 -1.384863853454589844e-01 -1.098208904266357422e+00 -1.376320362091064453e+00 -1.482416749000549316e+00 -2.031094074249267578e+00 -1.503196001052856445e+00 -4.424703419208526611e-01 2.056710720062255859e-01 -4.438461363315582275e-02 3.928765282034873962e-02 2.076725214719772339e-01 2.304190695285797119e-01 2.017857730388641357e-01 2.828895859420299530e-02 7.206245511770248413e-02 1.515966653823852539e-01 2.066863328218460083e-01 -7.936476613394916058e-04 1.731747686862945557e-01 -2.355598285794258118e-02 -2.108328789472579956e-01 -2.098159193992614746e-01 -2.843367755413055420e-01 -5.492293089628219604e-02 -1.054162252694368362e-02 1.956885606050491333e-01 6.513214111328125000e-01 1.104801058769226074e+00 8.628250956535339355e-01 -1.882234960794448853e-02 -7.407862544059753418e-01 -9.418188929557800293e-01 -1.442048788070678711e+00 -1.245308518409729004e+00 -3.728341460227966309e-01 1.785687059164047241e-01 4.256452023983001709e-01 3.991269469261169434e-01 2.056512981653213501e-01 8.558740466833114624e-02 -1.121948473155498505e-02 -1.848446428775787354e-01 -8.153539896011352539e-02 9.176479279994964600e-02 1.146461442112922668e-01 -5.941597744822502136e-02 1.211944371461868286e-01 1.092499420046806335e-01 -6.646866351366043091e-02 -4.042199254035949707e-01 -3.925109505653381348e-01 -4.002355970442295074e-03 1.979227922856807709e-02 6.437576562166213989e-02 6.971191763877868652e-01 1.108439087867736816e+00 1.406515598297119141e+00 1.057697057723999023e+00 5.008490681648254395e-01 -2.404027730226516724e-01 -9.694871306419372559e-01 -1.255329132080078125e+00 -7.420969009399414062e-01 2.583531429991126060e-03 4.172811210155487061e-01 3.751497268676757812e-01 1.028924733400344849e-01 2.527922019362449646e-02 -2.723986506462097168e-01 -3.053205609321594238e-01 -1.820102334022521973e-01 5.387647077441215515e-02 -1.670157536864280701e-02 -1.195443198084831238e-01 1.158316954970359802e-01 2.316604107618331909e-01 -8.501061052083969116e-02 -2.481299489736557007e-01 -3.028635680675506592e-01 7.022143807262182236e-03 -3.577841818332672119e-02 1.786159165203571320e-02 4.624381661415100098e-01 7.724297046661376953e-01 1.240069746971130371e+00 1.229467988014221191e+00 1.216246962547302246e+00 5.936397910118103027e-01 -6.223362684249877930e-01 -1.592999339103698730e+00 -1.379253387451171875e+00 -5.035386085510253906e-01 2.485833913087844849e-01 2.604110240936279297e-01 1.991372257471084595e-01 1.746455132961273193e-01 -5.198687314987182617e-02 -1.577687412500381470e-01 -1.159493103623390198e-01 1.024631112813949585e-01 5.811345204710960388e-02 3.935124352574348450e-02 -2.228222601115703583e-02 6.427739281207323074e-03 -2.728570997714996338e-02 -2.200331091880798340e-01 -2.156301587820053101e-01 5.629359744489192963e-03 -2.785840444266796112e-02 -1.060450077056884766e-02 3.138264417648315430e-01 6.955305337905883789e-01 8.908864259719848633e-01 9.168730378150939941e-01 1.106868624687194824e+00 7.786084413528442383e-01 -1.918847262859344482e-01 -1.123055577278137207e+00 -1.151378273963928223e+00 -3.049199879169464111e-01 5.222598910331726074e-01 5.100581049919128418e-01 5.229830145835876465e-01 4.642546474933624268e-01 -1.166184712201356888e-02 -1.787978857755661011e-01 -5.808313935995101929e-02 1.373968869447708130e-01 2.665365636348724365e-01 1.651058942079544067e-01 3.189715323969721794e-03 -6.139981374144554138e-02 -9.087357670068740845e-02 -9.464501403272151947e-03 1.004635263234376907e-02 -1.953731989488005638e-03 9.399579837918281555e-03 1.576670445501804352e-02 4.900223761796951294e-02 4.950169920921325684e-01 5.571552515029907227e-01 6.460844874382019043e-01 4.305375516414642334e-01 -1.194411367177963257e-01 -6.244965791702270508e-01 -4.319924712181091309e-01 1.132150515913963318e-01 6.390565037727355957e-01 6.721020936965942383e-01 5.655362606048583984e-01 4.964348673820495605e-01 3.157156407833099365e-01 2.931351773440837860e-02 -1.192700676620006561e-02 1.240581721067428589e-01 3.195524513721466064e-01 4.635781645774841309e-01 3.089869022369384766e-01 1.413889378309249878e-01 2.408812493085861206e-01 2.221631556749343872e-01 4.765975475311279297e-02 -2.060982398688793182e-02 2.848178707063198090e-02 1.593029592186212540e-03 -3.197683393955230713e-02 -5.928415339440107346e-04 1.082052439451217651e-01 9.820938110351562500e-02 2.056854218244552612e-01 -2.502466142177581787e-01 -8.991864323616027832e-01 -1.018918633460998535e+00 -8.630549907684326172e-02 9.379752278327941895e-01 8.225829601287841797e-01 5.358309149742126465e-01 3.921388387680053711e-01 5.251544117927551270e-01 3.313011527061462402e-01 5.495270341634750366e-02 -8.469913899898529053e-02 9.126001596450805664e-02 2.114922851324081421e-01 3.014742732048034668e-01 3.385857641696929932e-01 2.569284439086914062e-01 1.626607328653335571e-01 1.009590923786163330e-01 2.814736217260360718e-04 -1.596826501190662384e-02 1.719473861157894135e-03 9.239460341632366180e-03 5.062106065452098846e-03 -3.160829469561576843e-02 -2.223623596364632249e-04 -2.680077552795410156e-01 -5.405124425888061523e-01 -1.003059387207031250e+00 -1.314996838569641113e+00 -9.454236030578613281e-01 9.333048760890960693e-02 5.918070673942565918e-01 4.732125997543334961e-01 2.490147054195404053e-01 1.959415376186370850e-01 2.255612909793853760e-01 6.269537657499313354e-02 -1.190475672483444214e-01 -8.120454847812652588e-02 -4.254218656569719315e-03 5.988043546676635742e-02 1.029629111289978027e-01 4.476859234273433685e-03 -6.313414871692657471e-02 -1.061128079891204834e-01 -3.800014778971672058e-02 -3.641465678811073303e-03 5.370371043682098389e-03 4.145479295402765274e-03 1.894956827163696289e-02 -5.307295825332403183e-03 -2.565834205597639084e-03 -1.256164629012346268e-02 -1.244088914245367050e-02 -2.645351290702819824e-01 -4.026003181934356689e-01 -5.258424878120422363e-01 -3.682816028594970703e-01 2.690385468304157257e-02 2.375791370868682861e-01 2.083957940340042114e-01 1.227017566561698914e-01 1.178499981760978699e-01 3.303708508610725403e-02 -9.822792559862136841e-02 -1.025284901261329651e-01 -9.937858581542968750e-02 4.374730959534645081e-02 1.414589881896972656e-01 6.725107878446578979e-02 -2.550909109413623810e-02 7.998725399374961853e-03 -7.251858711242675781e-03 6.048611830919981003e-03 -1.815697294659912586e-03 -9.972237749025225639e-04 3.843067446723580360e-03
-9.025852195918560028e-03 -3.575067268684506416e-03 -2.245902270078659058e-02 -1.564379036426544189e-02 -2.482160925865173340e-03 1.329613942652940750e-02 -1.907521113753318787e-02 1.396357081830501556e-02 8.177274838089942932e-03 -4.199097398668527603e-03 -4.112356342375278473e-03 -9.963818825781345367e-03 8.716529235243797302e-03 -3.673103451728820801e-02 -1.247481852769851685e-01 8.030903525650501251e-03 -1.412395667284727097e-02 1.368246506899595261e-02 4.663885571062564850e-03 1.933198235929012299e-02 -1.373770087957382202e-02 5.071355029940605164e-03 -9.419028065167367458e-04 -1.369088608771562576e-02 2.176088979467749596e-03 -1.589441671967506409e-02 -5.801274441182613373e-03 8.765473030507564545e-03 6.218729075044393539e-03 -8.536877576261758804e-04 -4.454250447452068329e-03 -1.983980619115754962e-04 -1.853987341746687889e-04 5.361955612897872925e-03 1.631983369588851929e-01 1.540586352348327637e-01 2.546821832656860352e-01 2.880685329437255859e-01 4.139015972614288330e-01 3.636621832847595215e-01 4.008405804634094238e-01 2.172232568264007568e-01 1.345663815736770630e-01 3.105252794921398163e-02 2.101719565689563751e-02 2.630684971809387207e-01 3.593070507049560547e-01 3.397773206233978271e-01 2.722039222717285156e-01 5.564242973923683167e-02 1.850604712963104248e-01 7.804415374994277954e-02 -1.402969192713499069e-02 1.053291466087102890e-02 -3.844387829303741455e-02 1.223725639283657074e-02 1.799963414669036865e-02 9.638510644435882568e-03 2.875450627470854670e-05 -8.089308626949787140e-03 1.157289072871208191e-01 -4.816548526287078857e-02 1.421457231044769287e-01 2.319695204496383667e-01 3.247725963592529297e-01 3.822056055068969727e-01 4.838702678680419922e-01 4.125078916549682617e-01 1.938810199499130249e-01 1.215798854827880859e-01 -1.272026002407073975e-01 -1.366179734468460083e-01 7.188716903328895569e-03 9.046187251806259155e-02 3.427078127861022949e-01 3.357885777950286865e-01 4.401254355907440186e-01 3.166099190711975098e-01 1.131114065647125244e-01 8.427221328020095825e-02 -2.660629712045192719e-02 1.048981398344039917e-01 2.852890081703662872e-02 9.640726260840892792e-03 -2.658811956644058228e-02 -3.245787462219595909e-03 6.496488302946090698e-02 -1.399228442460298538e-02 1.617913879454135895e-02 3.679671585559844971e-01 3.986715376377105713e-01 3.664061129093170166e-01 3.699490725994110107e-01 4.270798563957214355e-01 4.992012083530426025e-01 5.375361442565917969e-01 4.392632246017456055e-01 1.111225485801696777e-01 -3.370719850063323975e-01 -5.925993323326110840e-01 -7.344335913658142090e-01 -5.370400547981262207e-01 -2.585553526878356934e-01 -3.351449593901634216e-02 9.523528069257736206e-02 9.804974496364593506e-02 2.825771644711494446e-02 -3.316416740417480469e-01 -2.445814907550811768e-01 -1.062027662992477417e-01 -4.702326841652393341e-03 -2.534634806215763092e-02 -3.037346526980400085e-03 1.216587051749229431e-02 -5.268787220120429993e-02 2.729825861752033234e-02 4.639352113008499146e-02 1.196455806493759155e-01 2.957883477210998535e-01 1.438592523336410522e-01 5.161683261394500732e-02 1.461813449859619141e-01 4.298197329044342041e-01 2.682065665721893311e-01 1.935961544513702393e-01 -1.323578953742980957e-01 -2.886610329151153564e-01 -3.442084193229675293e-01 -4.604746401309967041e-01 -5.315086841583251953e-01 -1.853898316621780396e-01 1.389464437961578369e-01 2.575718462467193604e-01 1.645056754350662231e-01 -3.625660762190818787e-02 -2.417561709880828857e-01 -1.042988225817680359e-01 -2.773027122020721436e-02 1.663483232259750366e-01 -3.545193001627922058e-02 -1.430597901344299316e-02 3.403198439627885818e-03 -3.482681931927800179e-03 9.768817573785781860e-02 2.483702898025512695e-01 2.767322957515716553e-02 8.164515718817710876e-03 1.292775124311447144e-01 1.463519334793090820e-01 3.165667355060577393e-01 2.864967584609985352e-01 3.400487452745437622e-02 -2.754887938499450684e-01 -4.806897342205047607e-01 -2.542931139469146729e-01 4.873528704047203064e-02 -1.084276065230369568e-01 -3.972202539443969727e-01 -2.889239192008972168e-01 1.477971971035003662e-01 2.183129638433456421e-01 9.031652659177780151e-02 -1.868592202663421631e-01 -2.527139484882354736e-01 -1.147328913211822510e-01 2.066082507371902466e-01 2.339171022176742554e-01 -2.067910041660070419e-03 -2.277332358062267303e-03 -8.506492711603641510e-03 1.491638869047164917e-01 1.471057236194610596e-01 1.925135552883148193e-01 9.203945100307464600e-02 1.275537014007568359e-01 2.051627635955810547e-01 2.874620556831359863e-01 2.874348163604736328e-01 1.339837908744812012e-01 -1.840844005346298218e-01 -5.015103816986083984e-01 -2.913023233413696289e-01 3.106222450733184814e-01 5.791319608688354492e-01 1.703711152076721191e-01 -4.560829102993011475e-01 -4.776951372623443604e-01 -5.370932817459106445e-02 1.006036344915628433e-02 -2.550544440746307373e-01 -6.843131780624389648e-01 -9.093741178512573242e-01 -6.702644824981689453e-01 -2.658878266811370850e-02 2.899762094020843506e-01 1.223862692713737488e-01 -1.772723509930074215e-03 -6.181808188557624817e-02 2.351084649562835693e-01 3.999318778514862061e-01 3.901781141757965088e-01 3.858992755413055420e-01 1.873996555805206299e-01 2.204688638448715210e-01 1.735648810863494873e-01 2.559444606304168701e-01 -1.862541958689689636e-02 -3.798956573009490967e-01 -3.748671114444732666e-01 -1.761913299560546875e-02 4.925401806831359863e-01 6.124489307403564453e-01 7.641386240720748901e-02 -8.440893292427062988e-01 -1.126083135604858398e+00 -6.175711750984191895e-01 -3.092720806598663330e-01 -3.841398060321807861e-01 -9.723100662231445312e-01 -1.054158687591552734e+00 -6.719815731048583984e-01 2.388090342283248901e-01 6.261894106864929199e-01 1.574032008647918701e-01 3.692387789487838745e-02 2.447061389684677124e-01 3.179071247577667236e-01 4.199542999267578125e-01 5.794742107391357422e-01 3.478289246559143066e-01 8.821547031402587891e-02 4.613416269421577454e-02 1.679805517196655273e-01 2.135583460330963135e-01 -8.508586883544921875e-02 -1.683068573474884033e-01 -1.827015131711959839e-01 7.951287180185317993e-02 4.175356030464172363e-01 4.155464470386505127e-01 -1.796187311410903931e-01 -1.139636635780334473e+00 -1.334793686866760254e+00 -6.402234435081481934e-01 -3.974145650863647461e-02 4.204795137047767639e-02 -3.607795238494873047e-01 -3.726339936256408691e-01 2.269236892461776733e-01 9.899625182151794434e-01 8.569049239158630371e-01 2.550330162048339844e-01 7.616305351257324219e-02 2.850946485996246338e-01 2.329133599996566772e-01 5.462258458137512207e-01 6.015478372573852539e-01 2.927051186561584473e-01 -1.192976534366607666e-01 -1.646667420864105225e-01 1.176929250359535217e-01 3.086714148521423340e-01 3.456038981676101685e-02 -9.156169742345809937e-02 -2.790986597537994385e-01 4.872325342148542404e-03 2.279482185840606689e-01 2.666473090648651123e-01 -2.194886803627014160e-01 -9.620530605316162109e-01 -8.463646173477172852e-01 -7.376131415367126465e-02 3.387845158576965332e-01 4.206044971942901611e-01 4.687594622373580933e-02 -1.633575372397899628e-02 5.028775930404663086e-01 1.145926594734191895e+00 6.908163428306579590e-01 4.751129448413848877e-02 5.494527146220207214e-02 2.833431363105773926e-01 3.505141735076904297e-01 4.585442245006561279e-01 4.572181999683380127e-01 5.738026276230812073e-02 -2.885791063308715820e-01 -3.197521269321441650e-01 2.417785972356796265e-01 2.014628350734710693e-01 7.671954482793807983e-02 -2.301057279109954834e-01 -4.415866434574127197e-01 -2.986522018909454346e-01 4.095217213034629822e-02 4.397712275385856628e-02 -2.527333498001098633e-01 -6.231510639190673828e-01 -2.029697000980377197e-01 4.467134475708007812e-01 3.364288210868835449e-01 2.628573179244995117e-01 -3.898492455482482910e-02 -1.133526340126991272e-01 3.177308440208435059e-01 7.855589389801025391e-01 5.839977860450744629e-01 2.239344865083694458e-01 9.873431921005249023e-02 2.735555469989776611e-01 2.239897102117538452e-01 3.519568145275115967e-01 1.979628764092922211e-02 -4.462186992168426514e-01 -7.146570086479187012e-01 -3.396552503108978271e-01 1.794281452894210815e-01 1.576968729496002197e-01 -2.182042598724365234e-02 -3.088295757770538330e-01 -5.993756055831909180e-01 -4.142458140850067139e-01 -1.223260164260864258e-01 -1.112779080867767334e-01 -3.281757533550262451e-01 -2.920158207416534424e-01 2.027248740196228027e-01 4.882259964942932129e-01 1.506382250227034092e-03 -1.035417392849922180e-01 -2.066057622432708740e-01 -2.014939337968826294e-01 -1.706549823284149170e-01 4.929136037826538086e-01 5.092440247535705566e-01 -2.117009647190570831e-02 4.318027943372726440e-02 -7.068000268191099167e-03 1.183192729949951172e-01 6.470924615859985352e-02 -2.238771170377731323e-01 -1.177427530288696289e+00 -1.270106434822082520e+00 -2.769159674644470215e-01 3.560056984424591064e-01 2.220760732889175415e-01 1.103168632835149765e-02 -2.536536157131195068e-01 -5.249551534652709961e-01 -3.624779284000396729e-01 -1.339839100837707520e-01 -7.019120454788208008e-02 -3.605223000049591064e-01 9.081999771296977997e-03 3.926320672035217285e-01 1.802124530076980591e-01 -2.205778211355209351e-01 -2.849452495574951172e-01 -8.569365739822387695e-02 -4.185611307621002197e-01 -4.142105281352996826e-01 3.264031708240509033e-01 4.186396002769470215e-01 4.093972221016883850e-02 3.257038770243525505e-03 -4.354938492178916931e-02 1.672242581844329834e-02 -2.648653388023376465e-01 -6.737546920776367188e-01 -2.014418363571166992e+00 -1.624397873878479004e+00 -2.630145847797393799e-01 5.041140317916870117e-01 4.037986099720001221e-01 1.422367244958877563e-01 -5.918509885668754578e-02 -2.364493161439895630e-01 -1.428147852420806885e-01 2.589320391416549683e-02 -8.401412516832351685e-02 -5.460607409477233887e-01 -6.372836232185363770e-02 2.771678566932678223e-01 9.867410361766815186e-02 -2.352502197027206421e-01 -1.580000966787338257e-01 1.120950952172279358e-01 -4.287702143192291260e-01 -3.978231847286224365e-01 3.109335601329803467e-01 3.592958450317382812e-01 3.999070450663566589e-02 1.519631221890449524e-02 1.840417645871639252e-02 -8.547335118055343628e-02 -4.751059114933013916e-01 -1.011390089988708496e+00 -2.483850240707397461e+00 -1.890105128288269043e+00 -4.772985279560089111e-01 4.814164340496063232e-01 5.266248583793640137e-01 1.528727114200592041e-01 -1.746070571243762970e-03 -1.113886386156082153e-01 -8.139340579509735107e-02 2.951860055327415466e-02 -5.149184465408325195e-01 -6.972699761390686035e-01 -8.855126053094863892e-02 2.231535464525222778e-01 1.082409173250198364e-01 -2.192141264677047729e-01 1.174564510583877563e-01 2.563166022300720215e-01 -2.021529525518417358e-01 -7.073350250720977783e-02 4.835931658744812012e-01 3.254384100437164307e-01 -2.760895714163780212e-02 6.612675264477729797e-03 -2.849769778549671173e-02 -3.359350860118865967e-01 -7.019611597061157227e-01 -1.387039899826049805e+00 -2.564508676528930664e+00 -1.869909882545471191e+00 -5.439433455467224121e-01 2.963455319404602051e-01 2.998406291007995605e-01 -1.178050227463245392e-02 -4.334164410829544067e-02 -8.278361521661281586e-03 -6.270232051610946655e-02 -2.115532457828521729e-01 -7.705932259559631348e-01 -4.173461794853210449e-01 7.887471467256546021e-02 1.283857375383377075e-01 -7.639982551336288452e-02 -1.379608213901519775e-01 2.771902084350585938e-01 2.973076403141021729e-01 -1.172276139259338379e-01 -6.191642489284276962e-03 4.411549270153045654e-01 2.981504499912261963e-01 7.966120541095733643e-02 -5.649748723953962326e-03 1.128599606454372406e-02 -3.948242664337158203e-01 -1.004423856735229492e+00 -1.503486752510070801e+00 -2.549879312515258789e+00 -1.572935819625854492e+00 -3.197008967399597168e-01 2.369788736104965210e-01 2.909181118011474609e-01 1.138646155595779419e-01 5.538094788789749146e-02 4.992680251598358154e-02 -8.320172131061553955e-02 -4.760846793651580811e-01 -7.786673307418823242e-01 -1.215803474187850952e-01 2.649570405483245850e-01 8.795367553830146790e-03 -2.707529067993164062e-01 -7.483471930027008057e-02 3.324249982833862305e-01 3.649391233921051025e-01 -5.576779693365097046e-02 -1.852183938026428223e-01 3.254328370094299316e-01 3.711581528186798096e-01 7.070942223072052002e-02 1.041800621896982193e-02 -5.930942669510841370e-02 -5.098344087600708008e-01 -9.968729019165039062e-01 -1.775687456130981445e+00 -2.126206636428833008e+00 -1.245751142501831055e+00 -9.205580502748489380e-02 4.886802136898040771e-01 6.049604415893554688e-01 3.539845943450927734e-01 1.840207874774932861e-01 -3.890079259872436523e-02 -2.254399061203002930e-01 -7.347473502159118652e-01 -5.101423263549804688e-01 1.499225795269012451e-01 3.172240555286407471e-01 -2.068315446376800537e-01 -4.468736052513122559e-01 2.358178421854972839e-02 3.316537737846374512e-01 2.481058388948440552e-01 1.241527590900659561e-02 5.454623140394687653e-03 4.836538732051849365e-01 4.700348079204559326e-01 -7.074168417602777481e-03 2.473858650773763657e-03 -7.348223775625228882e-02 -3.840080797672271729e-01 -1.075538992881774902e+00 -1.693148136138916016e+00 -1.950720191001892090e+00 -1.105388045310974121e+00 5.433990806341171265e-02 7.411864995956420898e-01 6.812356114387512207e-01 4.887951612472534180e-01 2.617966830730438232e-01 -6.393268704414367676e-02 -5.610830783843994141e-01 -7.030251622200012207e-01 -3.439483046531677246e-01 1.791260689496994019e-01 1.100431755185127258e-02 -4.377780854701995850e-01 -4.880388081073760986e-01 -4.452688619494438171e-02 4.024952054023742676e-01 2.027359902858734131e-01 2.631281130015850067e-02 2.462933808565139771e-01 5.202007889747619629e-01 4.223322868347167969e-01 1.881405562162399292e-01 7.478418760001659393e-03 -1.142587587237358093e-01 -4.736259281635284424e-01 -1.185981392860412598e+00 -1.881576418876647949e+00 -1.998757004737854004e+00 -9.661217927932739258e-01 1.955258250236511230e-01 8.475379347801208496e-01 5.475956797599792480e-01 3.571839332580566406e-01 3.042464554309844971e-01 -2.125687152147293091e-01 -8.119086623191833496e-01 -7.213713526725769043e-01 -2.572923600673675537e-01 2.981384657323360443e-02 -1.335653811693191528e-01 -4.572033286094665527e-01 -4.037086963653564453e-01 -6.292149424552917480e-02 2.511998414993286133e-01 1.381149739027023315e-01 -1.885536685585975647e-02 3.189693689346313477e-01 4.724492132663726807e-01 3.552661240100860596e-01 7.119511812925338745e-02 -3.329807892441749573e-02 -1.861290633678436279e-01 -5.295408964157104492e-01 -1.067565798759460449e+00 -1.641845583915710449e+00 -1.723593235015869141e+00 -7.482463121414184570e-01 2.586826086044311523e-01 6.731774210929870605e-01 4.484782218933105469e-01 3.343576490879058838e-01 2.807268202304840088e-01 -3.877358138561248779e-01 -7.433146238327026367e-01 -6.026815176010131836e-01 -1.825142204761505127e-01 -2.602460235357284546e-02 -1.497665196657180786e-01 -4.157770574092864990e-01 -3.786844015121459961e-01 -1.532884538173675537e-01 -9.924709051847457886e-02 -3.605967015027999878e-02 1.328784376382827759e-01 2.351947575807571411e-01 5.947001576423645020e-01 4.677667021751403809e-01 9.151500649750232697e-03 3.879923315253108740e-04 -2.036625593900680542e-01 -7.073414325714111328e-01 -1.067682385444641113e+00 -1.237192153930664062e+00 -1.228722810745239258e+00 -5.393109917640686035e-01 1.727109700441360474e-01 5.415654182434082031e-01 3.407457172870635986e-01 3.353913724422454834e-01 9.243778139352798462e-02 -4.535476863384246826e-01 -4.671652317047119141e-01 -3.950031697750091553e-01 -3.932472318410873413e-02 4.806266166269779205e-03 -1.182849779725074768e-01 -2.374512255191802979e-01 -3.911741971969604492e-01 -2.328088432550430298e-01 -1.315573304891586304e-01 -8.464921265840530396e-02 3.283951282501220703e-01 1.749232411384582520e-01 2.298555821180343628e-01 2.591253817081451416e-01 7.803828921169042587e-03 -4.930041730403900146e-02 -3.866927465423941612e-03 -6.370007395744323730e-01 -1.177823543548583984e+00 -8.058428764343261719e-01 -7.954065203666687012e-01 -3.933850824832916260e-01 1.827244609594345093e-01 3.901236057281494141e-01 2.681372761726379395e-01 1.469255536794662476e-01 -2.155892103910446167e-01 -4.942510426044464111e-01 -2.416727244853973389e-01 -1.216931194067001343e-01 -6.039194017648696899e-02 -1.352258305996656418e-02 1.060643326491117477e-02 -2.346183210611343384e-01 -2.953981459140777588e-01 -2.036370038986206055e-01 -1.585044264793395996e-01 -3.669495461508631706e-03 -7.865898311138153076e-02 -5.152891576290130615e-02 2.200747281312942505e-01 -4.448603838682174683e-02 -9.331004694104194641e-03 3.075764747336506844e-03 -1.214222237467765808e-02 -9.113967418670654297e-02 -5.364031791687011719e-01 -3.770257532596588135e-01 -3.044500052928924561e-01 -1.687444150447845459e-01 2.460353374481201172e-01 4.978809952735900879e-01 3.826129436492919922e-01 1.341055035591125488e-01 -2.499297410249710083e-01 -1.703613996505737305e-01 -8.925808593630790710e-03 -6.134971231222152710e-02 -8.555556833744049072e-02 -1.010307371616363525e-01 -9.595751762390136719e-02 -8.570494502782821655e-02 -1.736149489879608154e-01 -1.447328031063079834e-01 -1.619497239589691162e-01 -1.702442765235900879e-01 -1.921052187681198120e-01 -1.926496028900146484e-01 -2.443049289286136627e-02 -7.139078527688980103e-02 -1.018966827541589737e-02 -2.575667016208171844e-02 -7.720397319644689560e-03 -7.363759726285934448e-02 -1.974105387926101685e-01 -2.647372335195541382e-02 -6.799373030662536621e-02 -7.116446644067764282e-02 1.542537808418273926e-01 3.093374669551849365e-01 3.664354085922241211e-01 1.809302270412445068e-01 9.396978467702865601e-02 2.095633447170257568e-01 1.432846486568450928e-01 -1.160943433642387390e-01 -2.022368460893630981e-01 -1.949093043804168701e-01 -8.312827348709106445e-02 2.980084391310811043e-03 -8.402954041957855225e-02 4.248430923325940967e-05 -2.104332745075225830e-01 -2.415692359209060669e-01 -2.459358125925064087e-01 -2.823925018310546875e-01 6.742890458554029465e-03 -2.298387885093688965e-02 1.049838587641716003e-02 -1.857577823102474213e-02 6.773951463401317596e-03 -7.146410644054412842e-04 2.153471112251281738e-02 7.820183038711547852e-02 2.170148491859436035e-01 1.104373186826705933e-01 2.838630378246307373e-01 3.086289763450622559e-01 7.389790564775466919e-02 -1.111494377255439758e-01 1.711844503879547119e-01 2.731723487377166748e-01 2.473755180835723877e-02 -2.468154132366180420e-01 -4.678980410099029541e-01 -3.352348506450653076e-01 -1.354335695505142212e-01 7.978858798742294312e-02 -1.221024319529533386e-01 -2.989901900291442871e-01 -2.473124861717224121e-01 -9.052971750497817993e-02 -2.850118875503540039e-01 -1.055520996451377869e-01 -2.143852785229682922e-02 9.788308292627334595e-03 -1.335198432207107544e-02 6.408359389752149582e-03 1.059878966771066189e-03 5.135912448167800903e-03 1.149764866568148136e-03 1.402325183153152466e-01 3.336710631847381592e-01 1.425497531890869141e-01 1.509654968976974487e-01 3.702468797564506531e-02 -2.652631402015686035e-01 -2.245696932077407837e-01 1.071624010801315308e-01 3.055696487426757812e-01 4.357667639851570129e-02 -2.198850810527801514e-01 -3.387714326381683350e-01 -2.991843819618225098e-01 1.291849613189697266e-01 1.653837114572525024e-01 -3.829316236078739166e-03 -2.415918260812759399e-01 -1.419417262077331543e-01 -5.891185719519853592e-03 -1.229158937931060791e-01 -7.164441980421543121e-03 -1.164350472390651703e-02 -1.073924917727708817e-02 -4.397798795253038406e-03 -1.053085085004568100e-02 -1.182385534048080444e-02 -8.120879530906677246e-03 2.703261328861117363e-03 2.281555347144603729e-02 1.408543139696121216e-01 2.799353003501892090e-01 3.235398232936859131e-01 2.105951905250549316e-01 2.264555096626281738e-01 3.770814239978790283e-01 2.688813507556915283e-01 4.054292738437652588e-01 3.238489031791687012e-01 3.830156624317169189e-01 1.852789670228958130e-01 1.926464885473251343e-01 1.683398634195327759e-01 1.558454483747482300e-01 7.554463297128677368e-02 -7.366326451301574707e-02 -1.096776314079761505e-02 1.150989755988121033e-01 1.366990432143211365e-02 -3.683140734210610390e-03 5.802781786769628525e-03 1.748629612848162651e-03 9.506888687610626221e-03
